digraph Tree {
node [shape=box, fontname="helvetica"] ;
edge [fontname="helvetica"] ;
0 [label="x[3] <= 0.8\nentropy = 1.577\nsamples = 112\nvalue = [32, 39, 41]"] ;
1 [label="entropy = 0.0\nsamples = 32\nvalue = [32, 0, 0]"] ;
0 -> 1 [labeldistance=2.5, labelangle=45, headlabel="True"] ;
2 [label="x[3] <= 1.75\nentropy = 1.0\nsamples = 80\nvalue = [0, 39, 41]"] ;
0 -> 2 [labeldistance=2.5, labelangle=-45, headlabel="False"] ;
3 [label="x[2] <= 5.35\nentropy = 0.378\nsamples = 41\nvalue = [0, 38, 3]"] ;
2 -> 3 ;
4 [label="x[0] <= 4.95\nentropy = 0.172\nsamples = 39\nvalue = [0, 38, 1]"] ;
3 -> 4 ;
5 [label="x[2] <= 3.9\nentropy = 1.0\nsamples = 2\nvalue = [0, 1, 1]"] ;
4 -> 5 ;
6 [label="entropy = 0.0\nsamples = 1\nvalue = [0, 1, 0]"] ;
5 -> 6 ;
7 [label="entropy = 0.0\nsamples = 1\nvalue = [0, 0, 1]"] ;
5 -> 7 ;
8 [label="entropy = 0.0\nsamples = 37\nvalue = [0, 37, 0]"] ;
4 -> 8 ;
9 [label="entropy = 0.0\nsamples = 2\nvalue = [0, 0, 2]"] ;
3 -> 9 ;
10 [label="x[2] <= 4.85\nentropy = 0.172\nsamples = 39\nvalue = [0, 1, 38]"] ;
2 -> 10 ;
11 [label="x[0] <= 5.95\nentropy = 1.0\nsamples = 2\nvalue = [0, 1, 1]"] ;
10 -> 11 ;
12 [label="entropy = 0.0\nsamples = 1\nvalue = [0, 1, 0]"] ;
11 -> 12 ;
13 [label="entropy = 0.0\nsamples = 1\nvalue = [0, 0, 1]"] ;
11 -> 13 ;
14 [label="entropy = 0.0\nsamples = 37\nvalue = [0, 0, 37]"] ;
10 -> 14 ;
}